<?xml version="1.0"?>
<opencv_storage>
<stage20>
  <maxWeakCount>15</maxWeakCount>
  <stageThreshold>-1.0618358850479126e+00</stageThreshold>
  <weakClassifiers>
    <_>
      <internalNodes>
        0 -1 83157 1.5477737411856651e-02</internalNodes>
      <leafValues>
        -3.7093275785446167e-01 7.9487180709838867e-01</leafValues></_>
    <_>
      <internalNodes>
        0 -1 157596 -5.8655138127505779e-04</internalNodes>
      <leafValues>
        -5.1842182874679565e-01 1.4396253228187561e-01</leafValues></_>
    <_>
      <internalNodes>
        0 -1 134110 -2.1971799433231354e-02</internalNodes>
      <leafValues>
        7.1537715196609497e-01 -1.2268567830324173e-01</leafValues></_>
    <_>
      <internalNodes>
        0 -1 121041 7.7810196671634912e-04</internalNodes>
      <leafValues>
        -1.3295419514179230e-01 4.8440396785736084e-01</leafValues></_>
    <_>
      <internalNodes>
        0 -1 141899 -3.7250374443829060e-03</internalNodes>
      <leafValues>
        -1.7231953144073486e-01 4.2430070042610168e-01</leafValues></_>
    <_>
      <internalNodes>
        0 -1 160893 -6.6952491179108620e-03</internalNodes>
      <leafValues>
        9.3182808160781860e-01 -7.2138927876949310e-02</leafValues></_>
    <_>
      <internalNodes>
        0 -1 159292 -4.1790907271206379e-03</internalNodes>
      <leafValues>
        8.0790346860885620e-01 -6.5610885620117188e-02</leafValues></_>
    <_>
      <internalNodes>
        0 -1 89511 1.6226045787334442e-02</internalNodes>
      <leafValues>
        2.5692442059516907e-01 -3.6128795146942139e-01</leafValues></_>
    <_>
      <internalNodes>
        0 -1 55549 1.5240104403346777e-03</internalNodes>
      <leafValues>
        -2.7346909046173096e-01 4.1573187708854675e-01</leafValues></_>
    <_>
      <internalNodes>
        0 -1 161742 -3.8599534309469163e-04</internalNodes>
      <leafValues>
        -6.7048442363739014e-01 1.2740762531757355e-01</leafValues></_>
    <_>
      <internalNodes>
        0 -1 147623 9.1675622388720512e-04</internalNodes>
      <leafValues>
        -2.3763655126094818e-01 3.1405887007713318e-01</leafValues></_>
    <_>
      <internalNodes>
        0 -1 114410 1.3543730601668358e-02</internalNodes>
      <leafValues>
        1.0985922068357468e-01 -7.7457922697067261e-01</leafValues></_>
    <_>
      <internalNodes>
        0 -1 142834 -2.9641371220350266e-03</internalNodes>
      <leafValues>
        7.0353358983993530e-01 -1.6164562106132507e-01</leafValues></_>
    <_>
      <internalNodes>
        0 -1 87818 -3.0342876911163330e-02</internalNodes>
      <leafValues>
        -5.6478589773178101e-01 1.9251517951488495e-01</leafValues></_>
    <_>
      <internalNodes>
        0 -1 99192 -1.1430862545967102e-01</internalNodes>
      <leafValues>
        6.1332887411117554e-01 -1.7442047595977783e-01</leafValues></_></weakClassifiers></stage20>
</opencv_storage>
