<?xml version="1.0"?>
<opencv_storage>
<stage10>
  <maxWeakCount>8</maxWeakCount>
  <stageThreshold>-1.2073054313659668e+00</stageThreshold>
  <weakClassifiers>
    <_>
      <internalNodes>
        0 -1 136689 2.1871231496334076e-02</internalNodes>
      <leafValues>
        -5.9402984380722046e-01 3.5757574439048767e-01</leafValues></_>
    <_>
      <internalNodes>
        0 -1 26672 -3.3510215580463409e-02</internalNodes>
      <leafValues>
        4.2070019245147705e-01 -3.5744369029998779e-01</leafValues></_>
    <_>
      <internalNodes>
        0 -1 50686 7.6249940320849419e-03</internalNodes>
      <leafValues>
        -1.5943239629268646e-01 7.2284555435180664e-01</leafValues></_>
    <_>
      <internalNodes>
        0 -1 29615 -1.9274819642305374e-02</internalNodes>
      <leafValues>
        6.3772916793823242e-01 -1.6339181363582611e-01</leafValues></_>
    <_>
      <internalNodes>
        0 -1 130240 -3.1392476521432400e-03</internalNodes>
      <leafValues>
        6.3941705226898193e-01 -1.7034316062927246e-01</leafValues></_>
    <_>
      <internalNodes>
        0 -1 158099 7.4514362495392561e-05</internalNodes>
      <leafValues>
        2.8295558691024780e-01 -4.0703582763671875e-01</leafValues></_>
    <_>
      <internalNodes>
        0 -1 138313 -5.4692700505256653e-03</internalNodes>
      <leafValues>
        7.5223118066787720e-01 -1.4731650054454803e-01</leafValues></_>
    <_>
      <internalNodes>
        0 -1 83949 -2.3769795894622803e-02</internalNodes>
      <leafValues>
        8.6267179250717163e-01 -1.5991777181625366e-01</leafValues></_></weakClassifiers></stage10>
</opencv_storage>
