<?xml version="1.0"?>
<opencv_storage>
<stage16>
  <maxWeakCount>10</maxWeakCount>
  <stageThreshold>-9.0096563100814819e-01</stageThreshold>
  <weakClassifiers>
    <_>
      <internalNodes>
        0 -1 93912 -1.1882830411195755e-02</internalNodes>
      <leafValues>
        -5.7222223281860352e-01 4.7142857313156128e-01</leafValues></_>
    <_>
      <internalNodes>
        0 -1 10234 -2.5481343269348145e-01</internalNodes>
      <leafValues>
        -9.2898720502853394e-01 1.2624518573284149e-01</leafValues></_>
    <_>
      <internalNodes>
        0 -1 13369 3.8568819873034954e-03</internalNodes>
      <leafValues>
        -3.9601853489875793e-01 3.1734758615493774e-01</leafValues></_>
    <_>
      <internalNodes>
        0 -1 110117 -7.8394752927124500e-04</internalNodes>
      <leafValues>
        5.3950607776641846e-01 -1.8143773078918457e-01</leafValues></_>
    <_>
      <internalNodes>
        0 -1 161530 -7.0512440288439393e-04</internalNodes>
      <leafValues>
        -6.2844973802566528e-01 2.3897883296012878e-01</leafValues></_>
    <_>
      <internalNodes>
        0 -1 79890 -7.2065414860844612e-04</internalNodes>
      <leafValues>
        5.4645460844039917e-01 -2.7233237028121948e-01</leafValues></_>
    <_>
      <internalNodes>
        0 -1 71484 -5.7945405133068562e-03</internalNodes>
      <leafValues>
        5.0918918848037720e-01 -2.2022806107997894e-01</leafValues></_>
    <_>
      <internalNodes>
        0 -1 13296 2.0211069204378873e-04</internalNodes>
      <leafValues>
        2.2561489045619965e-01 -5.2180737257003784e-01</leafValues></_>
    <_>
      <internalNodes>
        0 -1 147449 2.1696523763239384e-03</internalNodes>
      <leafValues>
        -2.8468573093414307e-01 4.8369562625885010e-01</leafValues></_>
    <_>
      <internalNodes>
        0 -1 156911 -5.9455353766679764e-03</internalNodes>
      <leafValues>
        -2.7824601531028748e-01 5.8963352441787720e-01</leafValues></_></weakClassifiers></stage16>
</opencv_storage>
