<?xml version="1.0"?>
<opencv_storage>
<stage21>
  <maxWeakCount>13</maxWeakCount>
  <stageThreshold>-9.5201152563095093e-01</stageThreshold>
  <weakClassifiers>
    <_>
      <internalNodes>
        0 -1 306 -9.9096029996871948e-02</internalNodes>
      <leafValues>
        1.3043478131294250e-01 -5.1898735761642456e-01</leafValues></_>
    <_>
      <internalNodes>
        0 -1 151773 2.9295957647264004e-03</internalNodes>
      <leafValues>
        -3.1236740946769714e-01 2.9939684271812439e-01</leafValues></_>
    <_>
      <internalNodes>
        0 -1 150972 -1.1687345802783966e-02</internalNodes>
      <leafValues>
        -8.4853279590606689e-01 1.0823698341846466e-01</leafValues></_>
    <_>
      <internalNodes>
        0 -1 150964 1.9612597301602364e-02</internalNodes>
      <leafValues>
        1.3855905830860138e-01 -6.9666075706481934e-01</leafValues></_>
    <_>
      <internalNodes>
        0 -1 157593 -8.6682237451896071e-05</internalNodes>
      <leafValues>
        -4.1289466619491577e-01 1.7723752558231354e-01</leafValues></_>
    <_>
      <internalNodes>
        0 -1 157067 -6.4868736080825329e-03</internalNodes>
      <leafValues>
        5.0780659914016724e-01 -1.6696794331073761e-01</leafValues></_>
    <_>
      <internalNodes>
        0 -1 151879 -4.2591037345118821e-04</internalNodes>
      <leafValues>
        -6.1890935897827148e-01 1.4038310945034027e-01</leafValues></_>
    <_>
      <internalNodes>
        0 -1 152094 4.2774163186550140e-02</internalNodes>
      <leafValues>
        -3.1490570306777954e-01 3.1260126829147339e-01</leafValues></_>
    <_>
      <internalNodes>
        0 -1 151874 1.4874231070280075e-02</internalNodes>
      <leafValues>
        1.0175235569477081e-01 -8.2449340820312500e-01</leafValues></_>
    <_>
      <internalNodes>
        0 -1 45573 -4.5688468962907791e-03</internalNodes>
      <leafValues>
        5.3588414192199707e-01 -1.6155326366424561e-01</leafValues></_>
    <_>
      <internalNodes>
        0 -1 13305 -3.9955705869942904e-04</internalNodes>
      <leafValues>
        -4.9726450443267822e-01 1.6989816725254059e-01</leafValues></_>
    <_>
      <internalNodes>
        0 -1 89383 -4.4488301500678062e-04</internalNodes>
      <leafValues>
        3.1250822544097900e-01 -2.7161291241645813e-01</leafValues></_>
    <_>
      <internalNodes>
        0 -1 24021 1.9629489630460739e-02</internalNodes>
      <leafValues>
        -4.4717067480087280e-01 2.3567189276218414e-01</leafValues></_></weakClassifiers></stage21>
</opencv_storage>
